{"weight_0":[-1.5194889307022095,-2.0519142150878906,1.6450756788253784,0.7034066319465637,-1.5860178470611572,-2.9325180053710938,1.8590930700302124,-0.7513418793678284,-2.2498133182525635,1.181067705154419,0.647737443447113,2.597543954849243,-1.716367244720459,4.00559139251709,-5.282378196716309,-3.8032259941101074,-3.3428518772125244,-2.856649398803711,1.8210859298706055,2.321906566619873,-3.2916927337646484,-2.70119309425354,4.505008697509766,-2.503693103790283,3.1676177978515625,2.192866563796997,-3.3231582641601562,0.8608439564704895,2.846683979034424,4.00619649887085,-4.913748264312744,-1.6874016523361206],"weight_1":[-2.132333993911743,2.3028461933135986,1.1410342454910278,-2.943403482437134,0.8123955130577087,3.0470151901245117,0.05749909207224846,-1.0221104621887207,-1.257621169090271,1.2669689655303955,-2.4627327919006348,0.1476232409477234,-3.2876243591308594,1.0128719806671143,0.08086617290973663,-2.2838549613952637,-2.1751761436462402,1.6878496408462524,3.686490058898926,0.7874783277511597,-3.902801513671875,-0.9811886548995972,3.8491132259368896,-0.15484732389450073],"bias_0":[0.8108013272285461],"bias_1":[0.026778481900691986],"_metadata":[4,8,3,1778158161436]}